[
  {
    "W1": {
      "data": [
        [
          -14.452354466224103,
          16.42725669710634,
          25.911333867000522,
          8.85144408647763
        ],
        [
          34.579350503583804,
          -29.406598990697493,
          5.53507976343575,
          -6.586395974222245
        ],
        [
          -79.2583078169563,
          -6.101304193782255,
          37.13837880083332,
          39.17084162771671
        ],
        [
          -13.930249979735096,
          46.66424914350581,
          -39.80050846598251,
          18.09298669775569
        ]
      ],
      "rows": 4,
      "cols": 4
    },
    "b1": {
      "data": [
        [
          2.3904424726429268
        ],
        [
          7.926870023245771
        ],
        [
          10.253867660893707
        ],
        [
          -5.5545122971491026
        ]
      ],
      "rows": 4,
      "cols": 1
    },
    "W2": {
      "data": [
        [
          0.7180046754422961,
          37.7207560872395,
          -16.442594293419194,
          -9.232030174105406
        ]
      ],
      "rows": 1,
      "cols": 4
    },
    "b2": {
      "data": [
        [
          -33.74769436768854
        ]
      ],
      "rows": 1,
      "cols": 1
    }
  },
  {
    "W1": {
      "data": [
        [
          -19.02920534928787,
          16.07449761970473,
          25.55631353666558,
          7.712300929103893
        ],
        [
          32.93192942618662,
          -27.263087215427245,
          11.118826525869963,
          -8.882036469946708
        ],
        [
          -79.00956898944197,
          -4.101341790449308,
          37.39383713746327,
          40.63482475965642
        ],
        [
          -13.606576131249087,
          48.49246667149482,
          -42.53652121363369,
          18.75119913047045
        ]
      ],
      "rows": 4,
      "cols": 4
    },
    "b1": {
      "data": [
        [
          0.07984220701038786
        ],
        [
          7.101944468769916
        ],
        [
          9.56186870587802
        ],
        [
          -1.4539824080821664
        ]
      ],
      "rows": 4,
      "cols": 1
    },
    "W2": {
      "data": [
        [
          0.384266443940044,
          34.34239620175007,
          -16.697993743811626,
          -10.316651897938947
        ]
      ],
      "rows": 1,
      "cols": 4
    },
    "b2": {
      "data": [
        [
          -33.80542755415663
        ]
      ],
      "rows": 1,
      "cols": 1
    }
  },
  {
    "W1": {
      "data": [
        [
          -19.20477767283543,
          15.083452996337918,
          25.59131282683741,
          6.674935829613264
        ],
        [
          33.97142917071608,
          -25.918671754388107,
          10.554095815267573,
          -9.68680213057919
        ],
        [
          -79.957759249696,
          -4.801671921837719,
          36.56738885258426,
          40.183112081864124
        ],
        [
          -13.350142067743002,
          48.134781437468696,
          -42.69947888948045,
          17.609358126764153
        ]
      ],
      "rows": 4,
      "cols": 4
    },
    "b1": {
      "data": [
        [
          1.246186827983006
        ],
        [
          5.994396372956872
        ],
        [
          10.02515388800604
        ],
        [
          -3.8647526921420003
        ]
      ],
      "rows": 4,
      "cols": 1
    },
    "W2": {
      "data": [
        [
          -0.3068773770078242,
          33.82742395832228,
          -16.8723711089494,
          -9.542870000254169
        ]
      ],
      "rows": 1,
      "cols": 4
    },
    "b2": {
      "data": [
        [
          -34.28060656163332
        ]
      ],
      "rows": 1,
      "cols": 1
    }
  },
  {
    "W1": {
      "data": [
        [
          -17.520634715955342,
          16.340152041454537,
          26.195913435353848,
          8.935970568384509
        ],
        [
          34.39364408448403,
          -26.957938496771554,
          1.3960131573597732,
          -5.218969952120609
        ],
        [
          -79.45859640682018,
          -7.744357126343443,
          37.024013783562495,
          40.97052270035386
        ],
        [
          -11.651227744138705,
          47.135787217780205,
          -43.255326148349,
          17.790254859403046
        ]
      ],
      "rows": 4,
      "cols": 4
    },
    "b1": {
      "data": [
        [
          0.3820840796519063
        ],
        [
          5.8669429703200935
        ],
        [
          11.161354591941391
        ],
        [
          -5.917202381832684
        ]
      ],
      "rows": 4,
      "cols": 1
    },
    "W2": {
      "data": [
        [
          -1.0907045435994842,
          35.62010073087318,
          -17.388593796753963,
          -9.678341617844982
        ]
      ],
      "rows": 1,
      "cols": 4
    },
    "b2": {
      "data": [
        [
          -34.533491037171984
        ]
      ],
      "rows": 1,
      "cols": 1
    }
  },
  {
    "W1": {
      "data": [
        [
          -17.138642647449032,
          18.2307925883172,
          26.098338421109204,
          9.747089874918812
        ],
        [
          34.152990762427926,
          -28.52553937842962,
          4.851132286094351,
          -6.008025875607026
        ],
        [
          -81.84603412909904,
          -5.757233801468256,
          39.38691413156414,
          41.1224371667024
        ],
        [
          -12.832463517620994,
          45.775835771017526,
          -42.011296659710254,
          17.21120100733062
        ]
      ],
      "rows": 4,
      "cols": 4
    },
    "b1": {
      "data": [
        [
          3.2101431620823675
        ],
        [
          7.218509490144589
        ],
        [
          10.821186110032425
        ],
        [
          -5.33827510555267
        ]
      ],
      "rows": 4,
      "cols": 1
    },
    "W2": {
      "data": [
        [
          -1.1598137036364176,
          38.89967996169999,
          -16.248793150131764,
          -6.989386415922043
        ]
      ],
      "rows": 1,
      "cols": 4
    },
    "b2": {
      "data": [
        [
          -35.20388243791433
        ]
      ],
      "rows": 1,
      "cols": 1
    }
  },
  {
    "W1": {
      "data": [
        [
          -19.64998204189298,
          17.097009192583194,
          26.135840767615797,
          6.156542635461081
        ],
        [
          32.64407678877029,
          -26.183176900578164,
          10.579425316166862,
          -9.563036605716196
        ],
        [
          -79.66565978611668,
          -4.150458546136786,
          37.42103678115752,
          39.8229544273171
        ],
        [
          -13.600944079882613,
          48.21432068101773,
          -44.9943059853306,
          18.348358325775497
        ]
      ],
      "rows": 4,
      "cols": 4
    },
    "b1": {
      "data": [
        [
          0.022785572125153586
        ],
        [
          7.673411165633182
        ],
        [
          9.241251561224201
        ],
        [
          -3.808046262008954
        ]
      ],
      "rows": 4,
      "cols": 1
    },
    "W2": {
      "data": [
        [
          0.16549754334319688,
          34.58858954556675,
          -16.290318810790772,
          -9.935740152366963
        ]
      ],
      "rows": 1,
      "cols": 4
    },
    "b2": {
      "data": [
        [
          -33.97963014373141
        ]
      ],
      "rows": 1,
      "cols": 1
    }
  },
  {
    "W1": {
      "data": [
        [
          -15.740947331339544,
          16.448936669928628,
          26.615224811785453,
          8.932254946467332
        ],
        [
          35.79671402948041,
          -27.82877902581109,
          5.238608445133517,
          -6.576555023124255
        ],
        [
          -79.26346813991968,
          -4.074415642560861,
          37.63981714817511,
          42.86063138235328
        ],
        [
          -12.623843992665778,
          45.65621544169511,
          -42.597242904814756,
          18.181102969546384
        ]
      ],
      "rows": 4,
      "cols": 4
    },
    "b1": {
      "data": [
        [
          2.2512389003501068
        ],
        [
          4.753104343101761
        ],
        [
          7.111234959127351
        ],
        [
          -4.503979698756601
        ]
      ],
      "rows": 4,
      "cols": 1
    },
    "W2": {
      "data": [
        [
          0.022255890394795363,
          36.950067417726366,
          -18.468970468563715,
          -10.740538644172926
        ]
      ],
      "rows": 1,
      "cols": 4
    },
    "b2": {
      "data": [
        [
          -34.57120056663772
        ]
      ],
      "rows": 1,
      "cols": 1
    }
  },
  {
    "W1": {
      "data": [
        [
          -19.59292276709864,
          16.11934756636438,
          25.167068476648357,
          6.248335684903443
        ],
        [
          34.96141221383665,
          -26.954479335994883,
          11.098675047821258,
          -9.715737109527934
        ],
        [
          -79.78966575956302,
          -3.1998155591833424,
          36.27252092424398,
          39.411403777788074
        ],
        [
          -12.68088369128661,
          48.86902768464557,
          -42.73787564126427,
          17.79101226189897
        ]
      ],
      "rows": 4,
      "cols": 4
    },
    "b1": {
      "data": [
        [
          0.3841399393631227
        ],
        [
          5.811486422653891
        ],
        [
          8.461114840512684
        ],
        [
          -4.400611217469683
        ]
      ],
      "rows": 4,
      "cols": 1
    },
    "W2": {
      "data": [
        [
          0.19469235432453796,
          35.36385537377467,
          -17.35197849634371,
          -10.639871937508712
        ]
      ],
      "rows": 1,
      "cols": 4
    },
    "b2": {
      "data": [
        [
          -34.061247497521514
        ]
      ],
      "rows": 1,
      "cols": 1
    }
  },
  {
    "W1": {
      "data": [
        [
          -16.501078429270205,
          15.84498648824292,
          26.554473747338395,
          8.584870785915008
        ],
        [
          36.12335121593276,
          -27.537650788215352,
          2.3553677876328725,
          -4.78448567126539
        ],
        [
          -79.75946150301746,
          -7.430225028430927,
          38.02520693594294,
          40.10327049427714
        ],
        [
          -11.031042502060178,
          47.02831366771608,
          -44.307452981678765,
          18.058242937056864
        ]
      ],
      "rows": 4,
      "cols": 4
    },
    "b1": {
      "data": [
        [
          1.645988368936028
        ],
        [
          4.959629003697449
        ],
        [
          11.355886844933213
        ],
        [
          -5.257037565889165
        ]
      ],
      "rows": 4,
      "cols": 1
    },
    "W2": {
      "data": [
        [
          -1.4316954405675082,
          34.827065054903564,
          -17.533623465419737,
          -7.959915796102355
        ]
      ],
      "rows": 1,
      "cols": 4
    },
    "b2": {
      "data": [
        [
          -34.448877137983516
        ]
      ],
      "rows": 1,
      "cols": 1
    }
  },
  {
    "W1": {
      "data": [
        [
          -17.796290866227796,
          16.31079804372544,
          26.731054014657044,
          10.6517661235641
        ],
        [
          35.7317146579037,
          -28.922711302510223,
          4.263973223410582,
          -5.1300845410293485
        ],
        [
          -82.54088183763277,
          -5.536145207440881,
          37.97569791224673,
          40.70060972552047
        ],
        [
          -11.951916694013127,
          45.73269075429994,
          -40.92557544894913,
          17.002131692368035
        ]
      ],
      "rows": 4,
      "cols": 4
    },
    "b1": {
      "data": [
        [
          2.90101424055696
        ],
        [
          6.111841887918072
        ],
        [
          11.207142050373424
        ],
        [
          -5.870710020052406
        ]
      ],
      "rows": 4,
      "cols": 1
    },
    "W2": {
      "data": [
        [
          -1.6512813504274482,
          39.298414422861434,
          -16.749162483173826,
          -7.230684560388614
        ]
      ],
      "rows": 1,
      "cols": 4
    },
    "b2": {
      "data": [
        [
          -33.69115869487176
        ]
      ],
      "rows": 1,
      "cols": 1
    }
  },
  {
    "W1": {
      "data": [
        [
          -17.328742061835683,
          14.826726288380911,
          27.151175654878738,
          8.608008937137004
        ],
        [
          33.65288318955148,
          -26.4903777156156,
          1.6390677600078427,
          -5.323640929511861
        ],
        [
          -78.93820608685748,
          -7.091694662965324,
          36.48829527636867,
          40.902226092884625
        ],
        [
          -12.114400565238148,
          47.665046547514514,
          -44.014719633129744,
          18.40194021303281
        ]
      ],
      "rows": 4,
      "cols": 4
    },
    "b1": {
      "data": [
        [
          0.2958271223506459
        ],
        [
          6.006384742660977
        ],
        [
          10.36182455546245
        ],
        [
          -4.877670567588998
        ]
      ],
      "rows": 4,
      "cols": 1
    },
    "W2": {
      "data": [
        [
          -0.6098697163918907,
          35.684635346567376,
          -16.45529627750375,
          -10.163052949227536
        ]
      ],
      "rows": 1,
      "cols": 4
    },
    "b2": {
      "data": [
        [
          -33.061503673708586
        ]
      ],
      "rows": 1,
      "cols": 1
    }
  },
  {
    "W1": {
      "data": [
        [
          -18.161171217499366,
          16.520957274315286,
          25.965564430502834,
          6.942079220566159
        ],
        [
          34.06939906729179,
          -26.667720087645264,
          10.41360435189529,
          -10.209472931221697
        ],
        [
          -80.14582765485764,
          -5.701059578813409,
          36.58257118531034,
          40.58701268939638
        ],
        [
          -12.734288548765843,
          49.34050001804671,
          -42.81366058815477,
          18.79706283687266
        ]
      ],
      "rows": 4,
      "cols": 4
    },
    "b1": {
      "data": [
        [
          -0.22397658167412154
        ],
        [
          6.641464250221766
        ],
        [
          9.59842806230185
        ],
        [
          -3.587568471075258
        ]
      ],
      "rows": 4,
      "cols": 1
    },
    "W2": {
      "data": [
        [
          0.1374726909858086,
          35.67802448140755,
          -16.538171673255555,
          -11.10228575446522
        ]
      ],
      "rows": 1,
      "cols": 4
    },
    "b2": {
      "data": [
        [
          -34.77586445678233
        ]
      ],
      "rows": 1,
      "cols": 1
    }
  },
  {
    "W1": {
      "data": [
        [
          -19.20743488304467,
          16.442787912205855,
          26.914455493466573,
          6.214277256145403
        ],
        [
          34.28221629012774,
          -27.798363141396,
          10.38058379705979,
          -9.573502422106742
        ],
        [
          -80.74274934855984,
          -3.325963047737511,
          37.22915619925161,
          41.26406875631263
        ],
        [
          -13.122124332068335,
          48.20419322055943,
          -41.648838505640974,
          18.912109936422443
        ]
      ],
      "rows": 4,
      "cols": 4
    },
    "b1": {
      "data": [
        [
          -0.6437263560380496
        ],
        [
          6.277846030570648
        ],
        [
          10.596813339391163
        ],
        [
          -3.8259040989800766
        ]
      ],
      "rows": 4,
      "cols": 1
    },
    "W2": {
      "data": [
        [
          1.379999083323469,
          35.330439448218556,
          -17.88762218831221,
          -11.262156010545072
        ]
      ],
      "rows": 1,
      "cols": 4
    },
    "b2": {
      "data": [
        [
          -34.74242298545897
        ]
      ],
      "rows": 1,
      "cols": 1
    }
  },
  {
    "W1": {
      "data": [
        [
          -17.357360095222774,
          16.3331627896544,
          27.089908672200135,
          10.0518646387548
        ],
        [
          35.62199470158912,
          -28.530914158873482,
          4.106341785597432,
          -6.271706309920477
        ],
        [
          -83.10528507946049,
          -5.379089726222848,
          37.95537958922373,
          40.4340938591574
        ],
        [
          -12.258063842428024,
          45.510615139722866,
          -41.49232126220148,
          15.901588235961212
        ]
      ],
      "rows": 4,
      "cols": 4
    },
    "b1": {
      "data": [
        [
          4.2176871826011215
        ],
        [
          7.156246324838314
        ],
        [
          10.885344643676495
        ],
        [
          -6.477853025857113
        ]
      ],
      "rows": 4,
      "cols": 1
    },
    "W2": {
      "data": [
        [
          -0.9506426319300114,
          38.52480150092114,
          -16.234772908930392,
          -8.319787279933236
        ]
      ],
      "rows": 1,
      "cols": 4
    },
    "b2": {
      "data": [
        [
          -33.79248242755572
        ]
      ],
      "rows": 1,
      "cols": 1
    }
  },
  {
    "W1": {
      "data": [
        [
          -18.41302948181844,
          17.080388367251587,
          26.78872197018202,
          8.446617921280835
        ],
        [
          34.221872791261525,
          -26.62358803169051,
          10.471859665219673,
          -9.219183673403434
        ],
        [
          -80.15149694662352,
          -6.218971558535523,
          37.05331888360434,
          40.323537986917344
        ],
        [
          -11.8955877964678,
          48.18658664629899,
          -42.569301486106625,
          18.483688281257706
        ]
      ],
      "rows": 4,
      "cols": 4
    },
    "b1": {
      "data": [
        [
          -0.31301933615696587
        ],
        [
          6.493442499545148
        ],
        [
          9.618338534377532
        ],
        [
          -2.8936594151481563
        ]
      ],
      "rows": 4,
      "cols": 1
    },
    "W2": {
      "data": [
        [
          1.130017528759864,
          35.4342906880966,
          -16.720485515584592,
          -10.706948032824682
        ]
      ],
      "rows": 1,
      "cols": 4
    },
    "b2": {
      "data": [
        [
          -34.03923615424842
        ]
      ],
      "rows": 1,
      "cols": 1
    }
  },
  {
    "W1": {
      "data": [
        [
          -17.148486356923282,
          15.417500377281547,
          26.906172698773556,
          8.659573783481017
        ],
        [
          34.960622371872894,
          -26.774128140570053,
          1.8714002662840865,
          -5.885134727361463
        ],
        [
          -79.47528220534488,
          -7.564856127080841,
          36.72746275374642,
          41.52154678160741
        ],
        [
          -11.550755025683818,
          46.71954564469663,
          -44.45350902637656,
          18.472045088493953
        ]
      ],
      "rows": 4,
      "cols": 4
    },
    "b1": {
      "data": [
        [
          -0.028550930721894463
        ],
        [
          6.890568649771862
        ],
        [
          10.560067688638343
        ],
        [
          -5.105881400392156
        ]
      ],
      "rows": 4,
      "cols": 1
    },
    "W2": {
      "data": [
        [
          -1.093425984184439,
          35.58289924059451,
          -18.083236363208233,
          -10.013445068855074
        ]
      ],
      "rows": 1,
      "cols": 4
    },
    "b2": {
      "data": [
        [
          -34.807333792412415
        ]
      ],
      "rows": 1,
      "cols": 1
    }
  },
  {
    "W1": {
      "data": [
        [
          -18.935515857229575,
          16.274157303724984,
          26.558919581197788,
          6.614139997624109
        ],
        [
          33.86942048559337,
          -27.14596281704786,
          10.586770718689989,
          -6.5234041382236505
        ],
        [
          -81.28863226195944,
          -6.744191809056722,
          38.72746268392459,
          39.73044723454323
        ],
        [
          -13.077001868706198,
          47.47327179693291,
          -41.36655285095465,
          18.653694372530637
        ]
      ],
      "rows": 4,
      "cols": 4
    },
    "b1": {
      "data": [
        [
          -0.15274291795211803
        ],
        [
          6.0059308327559355
        ],
        [
          10.598473270329816
        ],
        [
          -2.4454530546804447
        ]
      ],
      "rows": 4,
      "cols": 1
    },
    "W2": {
      "data": [
        [
          -2.872963793319969,
          34.41281932134368,
          -18.11644471799546,
          -8.555722654947555
        ]
      ],
      "rows": 1,
      "cols": 4
    },
    "b2": {
      "data": [
        [
          -34.97818559403146
        ]
      ],
      "rows": 1,
      "cols": 1
    }
  },
  {
    "W1": {
      "data": [
        [
          -15.133076279981,
          15.420415937441623,
          27.41863340231779,
          9.162116598495151
        ],
        [
          34.50726494928274,
          -26.07308050531058,
          3.2245819287551285,
          -6.123870567258747
        ],
        [
          -78.70612556695275,
          -7.657874163162655,
          37.45908497109132,
          41.289780864736926
        ],
        [
          -11.511108043859215,
          46.04737442390662,
          -43.6803459513306,
          17.295928686985693
        ]
      ],
      "rows": 4,
      "cols": 4
    },
    "b1": {
      "data": [
        [
          1.2327102417948992
        ],
        [
          4.928174685038583
        ],
        [
          11.206039118556294
        ],
        [
          -3.9197299905897274
        ]
      ],
      "rows": 4,
      "cols": 1
    },
    "W2": {
      "data": [
        [
          -0.9218323740878286,
          35.620278655570424,
          -17.515337436802795,
          -8.70214608440848
        ]
      ],
      "rows": 1,
      "cols": 4
    },
    "b2": {
      "data": [
        [
          -34.98679078378947
        ]
      ],
      "rows": 1,
      "cols": 1
    }
  },
  {
    "W1": {
      "data": [
        [
          -18.3668151324531,
          15.190750011007664,
          26.185437598216076,
          6.820715364391237
        ],
        [
          34.602599836460065,
          -26.59159430346661,
          10.011058744541998,
          -7.2027192641758235
        ],
        [
          -80.53251668312761,
          -6.443819507615351,
          38.97910761194162,
          40.22724763600662
        ],
        [
          -13.634209510646254,
          47.59285024941356,
          -41.092046626710065,
          17.62578395273754
        ]
      ],
      "rows": 4,
      "cols": 4
    },
    "b1": {
      "data": [
        [
          -1.5535728263942246
        ],
        [
          6.178275883290847
        ],
        [
          11.570844916472263
        ],
        [
          -2.5370169257085955
        ]
      ],
      "rows": 4,
      "cols": 1
    },
    "W2": {
      "data": [
        [
          -2.138134458552684,
          33.82651000480683,
          -17.80917399236003,
          -8.57384599209527
        ]
      ],
      "rows": 1,
      "cols": 4
    },
    "b2": {
      "data": [
        [
          -34.12423874380614
        ]
      ],
      "rows": 1,
      "cols": 1
    }
  },
  {
    "W1": {
      "data": [
        [
          -19.399050113537253,
          16.689018769930488,
          25.43111363293538,
          6.6850469672933395
        ],
        [
          33.38393972378693,
          -26.933409262084094,
          9.625460992458146,
          -10.132137419223694
        ],
        [
          -78.89687030987702,
          -4.915849560111816,
          36.328839062202945,
          40.133403139204084
        ],
        [
          -13.466967721068857,
          47.482559971855494,
          -42.886831579716336,
          18.024679908593104
        ]
      ],
      "rows": 4,
      "cols": 4
    },
    "b1": {
      "data": [
        [
          -0.37870114066802985
        ],
        [
          7.371671993036459
        ],
        [
          10.708952262261562
        ],
        [
          -3.3241777390358913
        ]
      ],
      "rows": 4,
      "cols": 1
    },
    "W2": {
      "data": [
        [
          1.183452394991584,
          34.29685379957933,
          -16.57258816001684,
          -10.34001290288999
        ]
      ],
      "rows": 1,
      "cols": 4
    },
    "b2": {
      "data": [
        [
          -33.68753766497175
        ]
      ],
      "rows": 1,
      "cols": 1
    }
  },
  {
    "W1": {
      "data": [
        [
          -16.866278170773032,
          16.44833795256441,
          26.27294478644818,
          8.724829295633327
        ],
        [
          34.66880620618634,
          -28.519132611298147,
          1.960540240639772,
          -4.1850317913289885
        ],
        [
          -78.55674986972832,
          -7.449281867896696,
          37.288823574101464,
          40.64003684929005
        ],
        [
          -11.3975673847049,
          47.678808347009,
          -44.74067412211514,
          17.62228454881057
        ]
      ],
      "rows": 4,
      "cols": 4
    },
    "b1": {
      "data": [
        [
          1.3531443739262965
        ],
        [
          5.503334260985255
        ],
        [
          11.506393189584074
        ],
        [
          -5.249609137484784
        ]
      ],
      "rows": 4,
      "cols": 1
    },
    "W2": {
      "data": [
        [
          -1.155361523899435,
          34.690378945488746,
          -18.13844805147157,
          -7.289234051370486
        ]
      ],
      "rows": 1,
      "cols": 4
    },
    "b2": {
      "data": [
        [
          -34.66769762436872
        ]
      ],
      "rows": 1,
      "cols": 1
    }
  },
  {
    "W1": {
      "data": [
        [
          -17.712122574408024,
          15.875360445088369,
          26.26168207614563,
          8.535882224118176
        ],
        [
          33.781692260446526,
          -26.337258765676555,
          9.815131410197734,
          -9.722019407845764
        ],
        [
          -79.66152031283987,
          -5.16471593051815,
          37.54239544012343,
          40.39802426367912
        ],
        [
          -12.924498216861187,
          48.047279333420384,
          -42.298132226391715,
          19.646461437009155
        ]
      ],
      "rows": 4,
      "cols": 4
    },
    "b1": {
      "data": [
        [
          -0.952256672891315
        ],
        [
          6.4191998847495455
        ],
        [
          10.341043127123369
        ],
        [
          -3.8792592855538093
        ]
      ],
      "rows": 4,
      "cols": 1
    },
    "W2": {
      "data": [
        [
          0.9369895257778939,
          34.525785976217314,
          -17.05293611254092,
          -11.111869271975317
        ]
      ],
      "rows": 1,
      "cols": 4
    },
    "b2": {
      "data": [
        [
          -34.258289419696176
        ]
      ],
      "rows": 1,
      "cols": 1
    }
  },
  {
    "W1": {
      "data": [
        [
          -18.43587316763103,
          15.870927359775314,
          25.315210465487553,
          7.537276104772798
        ],
        [
          33.852602782894515,
          -27.01788107118024,
          10.086896596366028,
          -9.989738509952163
        ],
        [
          -79.5698383649672,
          -5.387761254157593,
          36.78987626511627,
          40.90566284423405
        ],
        [
          -12.17227773309481,
          48.89634664084094,
          -42.80976986526319,
          19.85622073180885
        ]
      ],
      "rows": 4,
      "cols": 4
    },
    "b1": {
      "data": [
        [
          0.09436046641909088
        ],
        [
          6.59584668571267
        ],
        [
          10.078435742270692
        ],
        [
          -3.3907060907263196
        ]
      ],
      "rows": 4,
      "cols": 1
    },
    "W2": {
      "data": [
        [
          0.3108165770173161,
          35.477906189661425,
          -17.28571981067138,
          -10.532463631906488
        ]
      ],
      "rows": 1,
      "cols": 4
    },
    "b2": {
      "data": [
        [
          -34.531986946817504
        ]
      ],
      "rows": 1,
      "cols": 1
    }
  },
  {
    "W1": {
      "data": [
        [
          -18.14056423634955,
          17.986482792414478,
          25.259471237988535,
          9.946969675813493
        ],
        [
          35.84752920678627,
          -28.8215123540504,
          5.4058609130117885,
          -5.508136664940632
        ],
        [
          -82.54060516904687,
          -5.534765560505811,
          39.272468959064426,
          40.339927122252774
        ],
        [
          -13.376627548196252,
          45.062385136380925,
          -41.814816992858965,
          17.994935632359745
        ]
      ],
      "rows": 4,
      "cols": 4
    },
    "b1": {
      "data": [
        [
          3.9187444562696414
        ],
        [
          6.255634345175522
        ],
        [
          10.793081803074921
        ],
        [
          -5.885355193504455
        ]
      ],
      "rows": 4,
      "cols": 1
    },
    "W2": {
      "data": [
        [
          0.11844980326868948,
          39.921764320049476,
          -14.992820762444884,
          -8.21578600674283
        ]
      ],
      "rows": 1,
      "cols": 4
    },
    "b2": {
      "data": [
        [
          -34.069481610509236
        ]
      ],
      "rows": 1,
      "cols": 1
    }
  },
  {
    "W1": {
      "data": [
        [
          -18.434866192177147,
          15.518801596409459,
          26.04399675868917,
          6.738007205251476
        ],
        [
          34.57423832607328,
          -27.765070243566736,
          10.559390266768345,
          -7.272929778154289
        ],
        [
          -81.69124753715475,
          -5.7011219045504165,
          38.796614182210554,
          40.14867754339602
        ],
        [
          -13.060086213273179,
          46.37947057130466,
          -41.793166019445835,
          17.763387573979905
        ]
      ],
      "rows": 4,
      "cols": 4
    },
    "b1": {
      "data": [
        [
          -0.5702924921457452
        ],
        [
          6.942008554878715
        ],
        [
          11.891060157306072
        ],
        [
          -2.9930788401258273
        ]
      ],
      "rows": 4,
      "cols": 1
    },
    "W2": {
      "data": [
        [
          -2.9619436271622197,
          34.586534814677684,
          -17.204709353561654,
          -8.68381526293984
        ]
      ],
      "rows": 1,
      "cols": 4
    },
    "b2": {
      "data": [
        [
          -34.90112932349501
        ]
      ],
      "rows": 1,
      "cols": 1
    }
  },
  {
    "W1": {
      "data": [
        [
          -16.570041948265327,
          17.988440035391008,
          25.59531589837462,
          8.485423935211411
        ],
        [
          34.252130244621206,
          -27.92148634798442,
          5.043879697337815,
          -7.1961752795075355
        ],
        [
          -77.78966420042381,
          -4.967141030498914,
          38.78523111842333,
          39.62372183750492
        ],
        [
          -14.253550816199015,
          45.61247976137257,
          -40.56561676076401,
          18.157161958878696
        ]
      ],
      "rows": 4,
      "cols": 4
    },
    "b1": {
      "data": [
        [
          2.483864538751383
        ],
        [
          7.0960124194297824
        ],
        [
          10.327615455743612
        ],
        [
          -4.5484657953521435
        ]
      ],
      "rows": 4,
      "cols": 1
    },
    "W2": {
      "data": [
        [
          0.7082580776574254,
          36.21444619806854,
          -17.64728985473473,
          -8.989462418571591
        ]
      ],
      "rows": 1,
      "cols": 4
    },
    "b2": {
      "data": [
        [
          -34.112497319938235
        ]
      ],
      "rows": 1,
      "cols": 1
    }
  },
  {
    "W1": {
      "data": [
        [
          -17.02661383358468,
          17.247302513265062,
          27.202986139314675,
          7.788618285912053
        ],
        [
          36.33980223427866,
          -28.348904537062335,
          4.339399281021048,
          -5.440586211008749
        ],
        [
          -81.16043461281708,
          -3.4940544096184816,
          37.684827072577875,
          40.55521550442004
        ],
        [
          -12.092335915600437,
          46.09596114489259,
          -43.741473042910926,
          18.031210175608035
        ]
      ],
      "rows": 4,
      "cols": 4
    },
    "b1": {
      "data": [
        [
          2.688209491176625
        ],
        [
          6.118662432289375
        ],
        [
          7.997390582847071
        ],
        [
          -5.614379770753856
        ]
      ],
      "rows": 4,
      "cols": 1
    },
    "W2": {
      "data": [
        [
          -1.8073800768581372,
          36.087980524965154,
          -17.410690754327682,
          -10.509587795986606
        ]
      ],
      "rows": 1,
      "cols": 4
    },
    "b2": {
      "data": [
        [
          -34.92202974094128
        ]
      ],
      "rows": 1,
      "cols": 1
    }
  },
  {
    "W1": {
      "data": [
        [
          -16.183568140548154,
          17.70088964922153,
          27.37509954950983,
          7.935910577376039
        ],
        [
          34.547739566399486,
          -27.497266387868493,
          4.863006886692826,
          -5.267530273653074
        ],
        [
          -82.31635484581305,
          -3.8890697572354656,
          38.322584252677274,
          40.60848283668587
        ],
        [
          -11.643820580737144,
          46.49961630308023,
          -44.59254581943611,
          18.69960981763837
        ]
      ],
      "rows": 4,
      "cols": 4
    },
    "b1": {
      "data": [
        [
          2.7193180450627668
        ],
        [
          6.424568271803071
        ],
        [
          9.465038758100592
        ],
        [
          -5.791452158749917
        ]
      ],
      "rows": 4,
      "cols": 1
    },
    "W2": {
      "data": [
        [
          -0.7763282467205244,
          35.66275034299545,
          -17.75876631043383,
          -10.518113745043195
        ]
      ],
      "rows": 1,
      "cols": 4
    },
    "b2": {
      "data": [
        [
          -34.374654961768385
        ]
      ],
      "rows": 1,
      "cols": 1
    }
  },
  {
    "W1": {
      "data": [
        [
          -16.59345062040628,
          17.236457345495197,
          27.58852608071549,
          9.080921549444499
        ],
        [
          36.098099437697336,
          -29.06195061278441,
          4.545778802050451,
          -6.115004849298141
        ],
        [
          -81.03909606112771,
          -4.4554217364024895,
          37.646804838966546,
          42.02852735771109
        ],
        [
          -12.388987290517415,
          46.381578984737764,
          -43.766974237628474,
          18.080527534348885
        ]
      ],
      "rows": 4,
      "cols": 4
    },
    "b1": {
      "data": [
        [
          1.51399749177251
        ],
        [
          6.161327821430219
        ],
        [
          7.576340434277474
        ],
        [
          -3.7088814291382617
        ]
      ],
      "rows": 4,
      "cols": 1
    },
    "W2": {
      "data": [
        [
          0.23423204784662943,
          37.18425609960679,
          -18.709045459668065,
          -10.47477984208019
        ]
      ],
      "rows": 1,
      "cols": 4
    },
    "b2": {
      "data": [
        [
          -33.920193339476775
        ]
      ],
      "rows": 1,
      "cols": 1
    }
  },
  {
    "W1": {
      "data": [
        [
          -18.422039502950653,
          17.016613827576013,
          26.7604299601799,
          6.8716951594967215
        ],
        [
          33.809187339468146,
          -28.026417947512027,
          10.752560019693979,
          -10.552910032504624
        ],
        [
          -80.9454493356685,
          -2.624231852461394,
          37.5335101103275,
          40.857408075375425
        ],
        [
          -12.902966540992942,
          48.46014082987553,
          -42.573346212691774,
          17.836787815839383
        ]
      ],
      "rows": 4,
      "cols": 4
    },
    "b1": {
      "data": [
        [
          -0.09190642829575388
        ],
        [
          6.162068912928801
        ],
        [
          10.752724179654074
        ],
        [
          -3.1598427624362793
        ]
      ],
      "rows": 4,
      "cols": 1
    },
    "W2": {
      "data": [
        [
          0.1503216346076609,
          34.9159604678356,
          -17.315693070160847,
          -11.828030938196655
        ]
      ],
      "rows": 1,
      "cols": 4
    },
    "b2": {
      "data": [
        [
          -34.91704173384579
        ]
      ],
      "rows": 1,
      "cols": 1
    }
  },
  {
    "W1": {
      "data": [
        [
          -14.458563448303234,
          17.040452526113583,
          26.475254217299184,
          9.184204568235726
        ],
        [
          34.68631842430904,
          -28.26097352962247,
          5.086980409520184,
          -6.8344108048766765
        ],
        [
          -77.45312903099459,
          -6.383164783830575,
          38.52494658846742,
          39.87373579311268
        ],
        [
          -13.758521816984922,
          46.210088123273614,
          -39.66094610533866,
          17.437387275074432
        ]
      ],
      "rows": 4,
      "cols": 4
    },
    "b1": {
      "data": [
        [
          1.7933689791824567
        ],
        [
          6.899890181735796
        ],
        [
          9.916168861262811
        ],
        [
          -4.754502939024081
        ]
      ],
      "rows": 4,
      "cols": 1
    },
    "W2": {
      "data": [
        [
          0.16221652051830074,
          37.284063453189916,
          -16.264077267255463,
          -9.718680313103466
        ]
      ],
      "rows": 1,
      "cols": 4
    },
    "b2": {
      "data": [
        [
          -34.38461276357737
        ]
      ],
      "rows": 1,
      "cols": 1
    }
  },
  {
    "W1": {
      "data": [
        [
          -16.064641074334286,
          15.51321644981156,
          27.20902883065254,
          9.432051548056345
        ],
        [
          35.37720273265755,
          -27.629852472071338,
          2.6937221437022663,
          -5.105710082825413
        ],
        [
          -79.98905347913502,
          -8.806938365028147,
          37.60724185452731,
          39.67874756531342
        ],
        [
          -12.95343133342945,
          45.68619498681747,
          -44.07105691662435,
          17.286546792914734
        ]
      ],
      "rows": 4,
      "cols": 4
    },
    "b1": {
      "data": [
        [
          1.2301023442008523
        ],
        [
          5.3477938987686375
        ],
        [
          10.352717815129724
        ],
        [
          -5.227819165487935
        ]
      ],
      "rows": 4,
      "cols": 1
    },
    "W2": {
      "data": [
        [
          0.008901606132971862,
          35.94925749903142,
          -17.521607184942248,
          -8.143202260820617
        ]
      ],
      "rows": 1,
      "cols": 4
    },
    "b2": {
      "data": [
        [
          -34.5421449569731
        ]
      ],
      "rows": 1,
      "cols": 1
    }
  },
  {
    "W1": {
      "data": [
        [
          -18.58847965737384,
          14.151523097906251,
          25.57623106862533,
          5.7995823501283486
        ],
        [
          34.634451552699936,
          -27.018973663003727,
          9.67635854756016,
          -6.093708840153433
        ],
        [
          -80.70165736175566,
          -6.082672808287864,
          39.32551443335846,
          39.696891174334375
        ],
        [
          -13.173495814671917,
          47.529224414383236,
          -40.66314171442328,
          17.61358288411157
        ]
      ],
      "rows": 4,
      "cols": 4
    },
    "b1": {
      "data": [
        [
          -0.5072210376806932
        ],
        [
          6.358434752601232
        ],
        [
          10.558312633331756
        ],
        [
          -4.526595658582345
        ]
      ],
      "rows": 4,
      "cols": 1
    },
    "W2": {
      "data": [
        [
          -4.2353122985472975,
          33.969397890308024,
          -18.346336468464997,
          -8.04790660703084
        ]
      ],
      "rows": 1,
      "cols": 4
    },
    "b2": {
      "data": [
        [
          -35.025764188016424
        ]
      ],
      "rows": 1,
      "cols": 1
    }
  },
  {
    "W1": {
      "data": [
        [
          -16.84355284959917,
          17.46137087962915,
          27.404728188592852,
          8.555118547015109
        ],
        [
          35.11342393784956,
          -28.958142718779076,
          3.953985292160907,
          -5.665035836349663
        ],
        [
          -80.95095987993008,
          -5.225291621396437,
          38.438029553718685,
          41.45382089576318
        ],
        [
          -12.291822167552255,
          46.14267032057063,
          -43.480174737245925,
          18.46650973322066
        ]
      ],
      "rows": 4,
      "cols": 4
    },
    "b1": {
      "data": [
        [
          1.8760235760111046
        ],
        [
          6.845375322152056
        ],
        [
          8.251541636485497
        ],
        [
          -4.804651111412575
        ]
      ],
      "rows": 4,
      "cols": 1
    },
    "W2": {
      "data": [
        [
          -1.476057638724753,
          35.383202452966685,
          -17.697098393722808,
          -10.083936619915816
        ]
      ],
      "rows": 1,
      "cols": 4
    },
    "b2": {
      "data": [
        [
          -33.87334587351155
        ]
      ],
      "rows": 1,
      "cols": 1
    }
  },
  {
    "W1": {
      "data": [
        [
          -19.901157110526512,
          16.305450782168382,
          26.714259744310613,
          5.604816186659785
        ],
        [
          33.062132664040035,
          -26.09984243012396,
          10.428545045337199,
          -9.133504632585055
        ],
        [
          -79.44166334992698,
          -4.148177867240086,
          36.49943157266331,
          40.984210050459524
        ],
        [
          -13.859864707368356,
          48.535922572328296,
          -44.118799952454495,
          18.565149290723067
        ]
      ],
      "rows": 4,
      "cols": 4
    },
    "b1": {
      "data": [
        [
          -0.09964375557938084
        ],
        [
          7.183183157119978
        ],
        [
          10.053150174708174
        ],
        [
          -4.103790197364734
        ]
      ],
      "rows": 4,
      "cols": 1
    },
    "W2": {
      "data": [
        [
          -0.1513596325200229,
          34.725497932800856,
          -16.699551405588583,
          -9.282732839703808
        ]
      ],
      "rows": 1,
      "cols": 4
    },
    "b2": {
      "data": [
        [
          -33.706015020394176
        ]
      ],
      "rows": 1,
      "cols": 1
    }
  },
  {
    "W1": {
      "data": [
        [
          -14.685387421468873,
          17.096941124055064,
          27.08610869930952,
          9.889389556857477
        ],
        [
          35.746665618735975,
          -29.42338726078017,
          3.1786761499393736,
          -3.019598344038959
        ],
        [
          -79.36195506723374,
          -5.586628865985426,
          38.77653776696582,
          40.41015260150809
        ],
        [
          -11.830397866210262,
          45.82833344019309,
          -42.60254380173072,
          15.440175043972884
        ]
      ],
      "rows": 4,
      "cols": 4
    },
    "b1": {
      "data": [
        [
          3.9855738216580208
        ],
        [
          6.520394934969722
        ],
        [
          9.743552803081373
        ],
        [
          -3.2615507735492035
        ]
      ],
      "rows": 4,
      "cols": 1
    },
    "W2": {
      "data": [
        [
          -1.4643343948779775,
          37.01335301799291,
          -18.735307036007573,
          -10.106065131088169
        ]
      ],
      "rows": 1,
      "cols": 4
    },
    "b2": {
      "data": [
        [
          -35.97847533042585
        ]
      ],
      "rows": 1,
      "cols": 1
    }
  },
  {
    "W1": {
      "data": [
        [
          -19.637813549019953,
          16.07208047854647,
          25.428312740298065,
          7.027022321616285
        ],
        [
          34.116159532053516,
          -25.787213555923586,
          9.74979889989743,
          -10.168822906044259
        ],
        [
          -79.04168066944061,
          -4.4045435354331355,
          37.84314289734286,
          40.14887469190453
        ],
        [
          -12.517311766952108,
          48.293195381965326,
          -42.79130704860886,
          18.883764228034124
        ]
      ],
      "rows": 4,
      "cols": 4
    },
    "b1": {
      "data": [
        [
          0.5071911363144737
        ],
        [
          6.116059796354829
        ],
        [
          9.012488229371739
        ],
        [
          -3.3678005915951363
        ]
      ],
      "rows": 4,
      "cols": 1
    },
    "W2": {
      "data": [
        [
          0.7317011846778372,
          34.15402088159952,
          -16.171153587637754,
          -10.706841077278922
        ]
      ],
      "rows": 1,
      "cols": 4
    },
    "b2": {
      "data": [
        [
          -34.549968883351646
        ]
      ],
      "rows": 1,
      "cols": 1
    }
  },
  {
    "W1": {
      "data": [
        [
          -16.45410272036158,
          15.489929010909108,
          25.99791428321817,
          8.283269310372562
        ],
        [
          34.34231399668747,
          -26.882136292011975,
          1.8406535378644344,
          -5.476012379736621
        ],
        [
          -79.43849631531,
          -9.155602389029582,
          37.08033504219947,
          41.443454768509696
        ],
        [
          -11.40055096255022,
          46.54817713943171,
          -42.48002608184557,
          17.797359743399685
        ]
      ],
      "rows": 4,
      "cols": 4
    },
    "b1": {
      "data": [
        [
          0.23580661336596456
        ],
        [
          6.237390292731824
        ],
        [
          10.580721058159853
        ],
        [
          -5.804837039480824
        ]
      ],
      "rows": 4,
      "cols": 1
    },
    "W2": {
      "data": [
        [
          -1.0931011969276185,
          36.519557923703545,
          -17.989234796351937,
          -9.162208212732114
        ]
      ],
      "rows": 1,
      "cols": 4
    },
    "b2": {
      "data": [
        [
          -34.13083766269917
        ]
      ],
      "rows": 1,
      "cols": 1
    }
  },
  {
    "W1": {
      "data": [
        [
          -15.619314272132637,
          17.011379283846715,
          27.708666721131515,
          8.52065287154971
        ],
        [
          35.34726400682456,
          -27.79382847424382,
          4.562589747587018,
          -6.029015420159433
        ],
        [
          -80.83904382815989,
          -4.3424067619270525,
          38.86505246633646,
          41.82287777312495
        ],
        [
          -13.35259170045708,
          46.19818372523694,
          -43.354493316952784,
          17.385572616825474
        ]
      ],
      "rows": 4,
      "cols": 4
    },
    "b1": {
      "data": [
        [
          1.6941881200819982
        ],
        [
          6.433951350092553
        ],
        [
          7.860464065500567
        ],
        [
          -4.353481121489275
        ]
      ],
      "rows": 4,
      "cols": 1
    },
    "W2": {
      "data": [
        [
          0.6223907025373574,
          36.92849263931406,
          -17.842540218609415,
          -11.309035066620392
        ]
      ],
      "rows": 1,
      "cols": 4
    },
    "b2": {
      "data": [
        [
          -34.2011393766556
        ]
      ],
      "rows": 1,
      "cols": 1
    }
  },
  {
    "W1": {
      "data": [
        [
          -19.512267595868533,
          17.058838979322793,
          27.80007951051215,
          7.812108497843197
        ],
        [
          32.84510262401977,
          -27.961666035652442,
          11.048556842449418,
          -9.416055095738205
        ],
        [
          -80.99652764851241,
          -4.301201860234938,
          36.920522461692144,
          40.378484202023
        ],
        [
          -12.870701013646439,
          48.09931105852883,
          -42.789882718735164,
          17.612797393009718
        ]
      ],
      "rows": 4,
      "cols": 4
    },
    "b1": {
      "data": [
        [
          -0.11393986965602614
        ],
        [
          7.002888678670676
        ],
        [
          9.301083784490913
        ],
        [
          -3.4542052035715445
        ]
      ],
      "rows": 4,
      "cols": 1
    },
    "W2": {
      "data": [
        [
          -0.35092625236696096,
          34.11652125026205,
          -17.498448489098198,
          -11.151766256708768
        ]
      ],
      "rows": 1,
      "cols": 4
    },
    "b2": {
      "data": [
        [
          -34.643560751552236
        ]
      ],
      "rows": 1,
      "cols": 1
    }
  },
  {
    "W1": {
      "data": [
        [
          -16.63185683903115,
          16.730623173436936,
          27.158868965395083,
          9.538761027779048
        ],
        [
          36.063447325812255,
          -29.0854193862468,
          3.8991867364591304,
          -4.57627777496345
        ],
        [
          -81.52411171868452,
          -5.717103422947094,
          38.177694963478295,
          40.566980305768105
        ],
        [
          -12.643825519787253,
          45.331322226583765,
          -41.027691954892674,
          16.12436976756316
        ]
      ],
      "rows": 4,
      "cols": 4
    },
    "b1": {
      "data": [
        [
          3.722711123302107
        ],
        [
          6.616392998922056
        ],
        [
          10.830461984093285
        ],
        [
          -5.056098686326889
        ]
      ],
      "rows": 4,
      "cols": 1
    },
    "W2": {
      "data": [
        [
          -0.8813873080691816,
          38.76962439447859,
          -16.994595961452386,
          -8.003111632081353
        ]
      ],
      "rows": 1,
      "cols": 4
    },
    "b2": {
      "data": [
        [
          -33.300646361510374
        ]
      ],
      "rows": 1,
      "cols": 1
    }
  },
  {
    "W1": {
      "data": [
        [
          -15.616894049161246,
          16.002834450238453,
          27.569248367683617,
          8.49121093212577
        ],
        [
          34.66720863559836,
          -27.778668760520656,
          2.961793398889116,
          -5.722097307037606
        ],
        [
          -77.98638319657292,
          -7.04286440378485,
          37.24667867508596,
          40.546071482661475
        ],
        [
          -12.276706430992245,
          46.36934908219216,
          -43.762342773891625,
          17.418096102597673
        ]
      ],
      "rows": 4,
      "cols": 4
    },
    "b1": {
      "data": [
        [
          2.026370163194374
        ],
        [
          5.947609798145319
        ],
        [
          11.607315792485885
        ],
        [
          -5.016690350747667
        ]
      ],
      "rows": 4,
      "cols": 1
    },
    "W2": {
      "data": [
        [
          -0.7453608648379801,
          37.14907813857823,
          -17.904635174467487,
          -8.814137382193385
        ]
      ],
      "rows": 1,
      "cols": 4
    },
    "b2": {
      "data": [
        [
          -34.69635612126092
        ]
      ],
      "rows": 1,
      "cols": 1
    }
  },
  {
    "W1": {
      "data": [
        [
          -15.477855206448952,
          16.26517267021382,
          27.62950110120031,
          8.365291668437163
        ],
        [
          33.90543209773186,
          -27.091164538547034,
          3.3538846331370604,
          -5.377041567836803
        ],
        [
          -78.41938980226578,
          -8.513861746820302,
          37.992105166195834,
          41.139966184920965
        ],
        [
          -11.483944951152068,
          46.2699099953984,
          -44.1424230103911,
          17.175221286003097
        ]
      ],
      "rows": 4,
      "cols": 4
    },
    "b1": {
      "data": [
        [
          1.2405574090653988
        ],
        [
          5.622926306148488
        ],
        [
          11.847020546286892
        ],
        [
          -5.680445985498417
        ]
      ],
      "rows": 4,
      "cols": 1
    },
    "W2": {
      "data": [
        [
          -1.2221409135029464,
          36.21282019474546,
          -18.170757881692772,
          -9.349842193727449
        ]
      ],
      "rows": 1,
      "cols": 4
    },
    "b2": {
      "data": [
        [
          -35.01237210051836
        ]
      ],
      "rows": 1,
      "cols": 1
    }
  },
  {
    "W1": {
      "data": [
        [
          -19.514619594886213,
          15.927175728561606,
          26.235358060468,
          5.9491281428212535
        ],
        [
          33.88945508778299,
          -25.825475276607975,
          11.041153289888229,
          -9.874184441960331
        ],
        [
          -79.07019066914965,
          -4.516591696205958,
          37.23812372238581,
          40.06064234913055
        ],
        [
          -13.118849189078158,
          49.32926432510481,
          -43.08927953937109,
          17.321281089881964
        ]
      ],
      "rows": 4,
      "cols": 4
    },
    "b1": {
      "data": [
        [
          0.2235185265405757
        ],
        [
          6.176157634418607
        ],
        [
          9.381311094989199
        ],
        [
          -3.9336932573005265
        ]
      ],
      "rows": 4,
      "cols": 1
    },
    "W2": {
      "data": [
        [
          0.24774229581585247,
          35.37417458082496,
          -18.02187029352033,
          -9.843301304754466
        ]
      ],
      "rows": 1,
      "cols": 4
    },
    "b2": {
      "data": [
        [
          -34.91350019948441
        ]
      ],
      "rows": 1,
      "cols": 1
    }
  },
  {
    "W1": {
      "data": [
        [
          -19.186847916884545,
          16.980270600471144,
          25.905766230214233,
          8.160569938338988
        ],
        [
          33.774414387143,
          -26.186486113301306,
          10.220302767573799,
          -10.137539044448113
        ],
        [
          -80.13742821808218,
          -5.302035862272237,
          36.38164678064127,
          40.91184549558923
        ],
        [
          -11.57433135201368,
          47.062501327940936,
          -42.52961377726275,
          19.12635579936186
        ]
      ],
      "rows": 4,
      "cols": 4
    },
    "b1": {
      "data": [
        [
          0.5199947620334109
        ],
        [
          7.517246280183432
        ],
        [
          10.158098785464563
        ],
        [
          -3.2858810802134477
        ]
      ],
      "rows": 4,
      "cols": 1
    },
    "W2": {
      "data": [
        [
          0.3785968127891882,
          34.147467488347296,
          -16.653545652547475,
          -10.309549064672636
        ]
      ],
      "rows": 1,
      "cols": 4
    },
    "b2": {
      "data": [
        [
          -34.35994362311202
        ]
      ],
      "rows": 1,
      "cols": 1
    }
  },
  {
    "W1": {
      "data": [
        [
          -18.428041941962817,
          15.674680163651614,
          26.886089201774837,
          7.573328596115122
        ],
        [
          35.01073729662685,
          -27.267383189001638,
          9.979706720680827,
          -7.420700358543983
        ],
        [
          -81.060462011055,
          -6.96651666291506,
          38.89471244210323,
          41.598008181054176
        ],
        [
          -13.766434800845934,
          47.57455329049773,
          -40.690052306572476,
          18.26834874460047
        ]
      ],
      "rows": 4,
      "cols": 4
    },
    "b1": {
      "data": [
        [
          -0.7200166421909835
        ],
        [
          6.434773729789853
        ],
        [
          11.01731080246697
        ],
        [
          -1.8757442721559419
        ]
      ],
      "rows": 4,
      "cols": 1
    },
    "W2": {
      "data": [
        [
          -3.7198468786997987,
          34.94459021036114,
          -17.9033311919068,
          -7.730826934248278
        ]
      ],
      "rows": 1,
      "cols": 4
    },
    "b2": {
      "data": [
        [
          -34.704184108138996
        ]
      ],
      "rows": 1,
      "cols": 1
    }
  },
  {
    "W1": {
      "data": [
        [
          -18.023010637074034,
          17.8752495893875,
          24.728949306868838,
          7.167473317501111
        ],
        [
          35.11977178928923,
          -27.152890564313005,
          8.844186409247152,
          -8.17909582664994
        ],
        [
          -78.8572973938483,
          -4.282918414725029,
          38.0057815860907,
          38.859098652831534
        ],
        [
          -11.75434400326699,
          47.49259492028159,
          -42.52041466309697,
          19.73607494016547
        ]
      ],
      "rows": 4,
      "cols": 4
    },
    "b1": {
      "data": [
        [
          0.16587387094939338
        ],
        [
          5.726596139708698
        ],
        [
          9.132895735173618
        ],
        [
          -0.8941615315265692
        ]
      ],
      "rows": 4,
      "cols": 1
    },
    "W2": {
      "data": [
        [
          -3.007422592258365,
          34.713680393124896,
          -17.588293075234372,
          -10.383946285705223
        ]
      ],
      "rows": 1,
      "cols": 4
    },
    "b2": {
      "data": [
        [
          -33.46450263513025
        ]
      ],
      "rows": 1,
      "cols": 1
    }
  },
  {
    "W1": {
      "data": [
        [
          -16.942400909885777,
          16.72095090864358,
          27.4869740480928,
          7.54208087129582
        ],
        [
          35.86671776337272,
          -27.39897266947422,
          4.5658380213409355,
          -5.327641693869216
        ],
        [
          -80.91178935056028,
          -4.189995963881852,
          37.568287296222145,
          41.79630536568822
        ],
        [
          -11.627005885449586,
          45.50242673836887,
          -44.20998261002619,
          18.01405552554582
        ]
      ],
      "rows": 4,
      "cols": 4
    },
    "b1": {
      "data": [
        [
          2.317955911568285
        ],
        [
          6.556713787865777
        ],
        [
          8.5018307775797
        ],
        [
          -4.865326319965202
        ]
      ],
      "rows": 4,
      "cols": 1
    },
    "W2": {
      "data": [
        [
          -0.9627148807187196,
          38.05314438916607,
          -17.612420480643674,
          -10.893218167680235
        ]
      ],
      "rows": 1,
      "cols": 4
    },
    "b2": {
      "data": [
        [
          -35.1680970466117
        ]
      ],
      "rows": 1,
      "cols": 1
    }
  },
  {
    "W1": {
      "data": [
        [
          -19.32608855756102,
          16.265199151227755,
          24.85702655475818,
          7.364642014274427
        ],
        [
          33.66938108981447,
          -27.032959372550135,
          10.447205463299236,
          -9.894023473011465
        ],
        [
          -78.88759348551706,
          -4.425397571978902,
          37.43207407593001,
          40.1663015958174
        ],
        [
          -13.79616796710984,
          48.27923137790562,
          -42.025535135094074,
          19.23335949559092
        ]
      ],
      "rows": 4,
      "cols": 4
    },
    "b1": {
      "data": [
        [
          0.9284196654389121
        ],
        [
          6.9934556529731555
        ],
        [
          8.848032353411218
        ],
        [
          -3.2592432471922077
        ]
      ],
      "rows": 4,
      "cols": 1
    },
    "W2": {
      "data": [
        [
          1.33040735240757,
          33.834192779152495,
          -16.324388505709695,
          -9.904226483453256
        ]
      ],
      "rows": 1,
      "cols": 4
    },
    "b2": {
      "data": [
        [
          -34.45759627535515
        ]
      ],
      "rows": 1,
      "cols": 1
    }
  },
  {
    "W1": {
      "data": [
        [
          -19.25643003401205,
          15.440548297494132,
          26.646329804997197,
          6.8532242575347935
        ],
        [
          34.96319489739953,
          -27.106802955915473,
          10.305222535411614,
          -7.366746383111938
        ],
        [
          -80.81278377884664,
          -6.270199241068143,
          37.56138124474641,
          39.90631922009102
        ],
        [
          -14.096904461851269,
          47.29276223944858,
          -40.92857198628719,
          17.92612342944717
        ]
      ],
      "rows": 4,
      "cols": 4
    },
    "b1": {
      "data": [
        [
          0.06811147910896154
        ],
        [
          6.809362242406454
        ],
        [
          10.671449744623269
        ],
        [
          -2.4985407503100707
        ]
      ],
      "rows": 4,
      "cols": 1
    },
    "W2": {
      "data": [
        [
          -2.5600738522514606,
          34.325706385584624,
          -17.72222676688837,
          -8.689507620904891
        ]
      ],
      "rows": 1,
      "cols": 4
    },
    "b2": {
      "data": [
        [
          -35.61821781375019
        ]
      ],
      "rows": 1,
      "cols": 1
    }
  },
  {
    "W1": {
      "data": [
        [
          -18.495062398584317,
          15.266625862341181,
          26.239593015892428,
          6.491906113273953
        ],
        [
          35.47224535685746,
          -28.55230478170949,
          10.047801652471302,
          -7.650759404946204
        ],
        [
          -80.34596506603009,
          -6.425962904160996,
          38.3833023665567,
          40.338640059022374
        ],
        [
          -14.282970037373884,
          47.644866806183856,
          -40.53588451546283,
          18.561943744673847
        ]
      ],
      "rows": 4,
      "cols": 4
    },
    "b1": {
      "data": [
        [
          -1.3013772781300932
        ],
        [
          4.714454327758734
        ],
        [
          10.576911953937346
        ],
        [
          -2.672527295367156
        ]
      ],
      "rows": 4,
      "cols": 1
    },
    "W2": {
      "data": [
        [
          -3.796713378898594,
          34.633679818811686,
          -18.30848529763448,
          -8.129253740117795
        ]
      ],
      "rows": 1,
      "cols": 4
    },
    "b2": {
      "data": [
        [
          -35.90352493957448
        ]
      ],
      "rows": 1,
      "cols": 1
    }
  },
  {
    "W1": {
      "data": [
        [
          -14.98805363211818,
          17.33740404703736,
          25.511007198678815,
          8.933641797987777
        ],
        [
          34.079181825618804,
          -28.49089814212467,
          4.590086369676747,
          -6.562453497009647
        ],
        [
          -78.12853030337394,
          -5.298264089933368,
          38.47305653024209,
          38.53993784291684
        ],
        [
          -13.183931614915965,
          46.13507010108838,
          -39.10241470959029,
          17.00410388132862
        ]
      ],
      "rows": 4,
      "cols": 4
    },
    "b1": {
      "data": [
        [
          2.545751783207939
        ],
        [
          6.864427659975982
        ],
        [
          10.872888341175493
        ],
        [
          -4.6222805786405745
        ]
      ],
      "rows": 4,
      "cols": 1
    },
    "W2": {
      "data": [
        [
          2.2755224936027743,
          36.48151222809382,
          -17.16014920168004,
          -9.417115268492337
        ]
      ],
      "rows": 1,
      "cols": 4
    },
    "b2": {
      "data": [
        [
          -34.239673714528834
        ]
      ],
      "rows": 1,
      "cols": 1
    }
  },
  {
    "W1": {
      "data": [
        [
          -17.507653032532126,
          18.133755045270497,
          26.03315571533091,
          7.432563688630507
        ],
        [
          34.68460667903466,
          -27.505235143564395,
          9.378196340419828,
          -8.624789679844891
        ],
        [
          -78.3653650924238,
          -3.869817086192597,
          37.088099007509626,
          39.399776172750016
        ],
        [
          -12.63935753785186,
          48.828623620382594,
          -42.22483381391193,
          19.05106382830512
        ]
      ],
      "rows": 4,
      "cols": 4
    },
    "b1": {
      "data": [
        [
          1.3515498073323902
        ],
        [
          5.943218489245814
        ],
        [
          8.827257105942579
        ],
        [
          -0.8885102190747252
        ]
      ],
      "rows": 4,
      "cols": 1
    },
    "W2": {
      "data": [
        [
          -4.154655998106936,
          34.516037959237295,
          -17.501784576401334,
          -10.577031682868515
        ]
      ],
      "rows": 1,
      "cols": 4
    },
    "b2": {
      "data": [
        [
          -33.07538271830827
        ]
      ],
      "rows": 1,
      "cols": 1
    }
  },
  {
    "W1": {
      "data": [
        [
          -18.132506785911932,
          15.363337363702167,
          25.603755682164294,
          6.301874509950531
        ],
        [
          34.132625744713124,
          -26.939589339572365,
          10.532356914936118,
          -9.593995350997716
        ],
        [
          -79.76833735569129,
          -3.9949848541283437,
          36.660147305624754,
          40.62313523551089
        ],
        [
          -13.769867550329929,
          48.04129972743141,
          -43.651705690768146,
          17.771472863093337
        ]
      ],
      "rows": 4,
      "cols": 4
    },
    "b1": {
      "data": [
        [
          1.1218569945392525
        ],
        [
          6.64231751854033
        ],
        [
          9.43017447058263
        ],
        [
          -2.8244502680871175
        ]
      ],
      "rows": 4,
      "cols": 1
    },
    "W2": {
      "data": [
        [
          1.2497834954089138,
          34.727777863849724,
          -17.331717233756837,
          -10.50473972093029
        ]
      ],
      "rows": 1,
      "cols": 4
    },
    "b2": {
      "data": [
        [
          -33.786310542689264
        ]
      ],
      "rows": 1,
      "cols": 1
    }
  },
  {
    "W1": {
      "data": [
        [
          -14.596166949080613,
          16.948398599036473,
          25.15404789207364,
          9.393413599660073
        ],
        [
          34.84151726557364,
          -28.87312612700382,
          5.836663493427671,
          -5.787166686611462
        ],
        [
          -78.82024716873235,
          -5.819645530228683,
          37.61228700836265,
          39.10954071005514
        ],
        [
          -13.703940798004114,
          46.946017261912196,
          -40.26121745374655,
          16.727033125702945
        ]
      ],
      "rows": 4,
      "cols": 4
    },
    "b1": {
      "data": [
        [
          2.8285073665148137
        ],
        [
          6.57561778260185
        ],
        [
          10.381688474624392
        ],
        [
          -4.798912466425353
        ]
      ],
      "rows": 4,
      "cols": 1
    },
    "W2": {
      "data": [
        [
          -0.5240104025327263,
          37.809595343089555,
          -17.927204034868858,
          -9.36784403363562
        ]
      ],
      "rows": 1,
      "cols": 4
    },
    "b2": {
      "data": [
        [
          -34.13481538169118
        ]
      ],
      "rows": 1,
      "cols": 1
    }
  },
  {
    "W1": {
      "data": [
        [
          -18.00104077568941,
          15.988223318437262,
          27.26643089729359,
          7.093584215381543
        ],
        [
          34.91414594138351,
          -28.019606957622095,
          10.600185450995847,
          -7.279313227733664
        ],
        [
          -81.22344375467893,
          -6.798872368027248,
          38.189619513374865,
          40.324297665067746
        ],
        [
          -13.106190178242343,
          47.24020585634365,
          -41.85421577162385,
          17.387146605400883
        ]
      ],
      "rows": 4,
      "cols": 4
    },
    "b1": {
      "data": [
        [
          0.6907100976166465
        ],
        [
          6.4411298036575175
        ],
        [
          11.008732809832518
        ],
        [
          -3.7154918686887064
        ]
      ],
      "rows": 4,
      "cols": 1
    },
    "W2": {
      "data": [
        [
          -3.160899440427017,
          34.258828395605015,
          -17.60583437675447,
          -8.594434914065513
        ]
      ],
      "rows": 1,
      "cols": 4
    },
    "b2": {
      "data": [
        [
          -34.976966341216176
        ]
      ],
      "rows": 1,
      "cols": 1
    }
  },
  {
    "W1": {
      "data": [
        [
          -19.486973909097102,
          17.594934255624313,
          25.53233266716783,
          5.288813681842183
        ],
        [
          33.47479633933882,
          -24.83150309377013,
          9.824661256279684,
          -9.82348383949555
        ],
        [
          -78.8388867514589,
          -3.9415572331664355,
          37.57519244371236,
          40.25160075107161
        ],
        [
          -13.149057686271416,
          48.031927745745996,
          -44.33857512284829,
          18.650987943285198
        ]
      ],
      "rows": 4,
      "cols": 4
    },
    "b1": {
      "data": [
        [
          0.23886212113905875
        ],
        [
          8.223985048125318
        ],
        [
          10.0800571888137
        ],
        [
          -3.650131866279442
        ]
      ],
      "rows": 4,
      "cols": 1
    },
    "W2": {
      "data": [
        [
          0.35397672351490483,
          34.42034282954075,
          -17.43790083724466,
          -10.129729631724569
        ]
      ],
      "rows": 1,
      "cols": 4
    },
    "b2": {
      "data": [
        [
          -34.66305703116708
        ]
      ],
      "rows": 1,
      "cols": 1
    }
  },
  {
    "W1": {
      "data": [
        [
          -18.903124691105692,
          14.89348756733421,
          25.53992908336162,
          7.6144333467695855
        ],
        [
          33.38401877565475,
          -26.970925140721786,
          9.822694356494484,
          -10.872630930179515
        ],
        [
          -78.8253618804789,
          -4.399167666854278,
          37.63020880287882,
          40.46451603490725
        ],
        [
          -12.325083180455552,
          47.99855174478204,
          -43.29610240244391,
          17.380206035669303
        ]
      ],
      "rows": 4,
      "cols": 4
    },
    "b1": {
      "data": [
        [
          0.9321153666030586
        ],
        [
          7.197043301853595
        ],
        [
          9.295097199376485
        ],
        [
          -2.769314470812161
        ]
      ],
      "rows": 4,
      "cols": 1
    },
    "W2": {
      "data": [
        [
          0.39037608658861167,
          34.57248335584332,
          -16.922429004702664,
          -11.474219622466727
        ]
      ],
      "rows": 1,
      "cols": 4
    },
    "b2": {
      "data": [
        [
          -33.8995030937218
        ]
      ],
      "rows": 1,
      "cols": 1
    }
  },
  {
    "W1": {
      "data": [
        [
          -17.593045060061407,
          15.611180148783241,
          26.908294518475465,
          9.978878081398786
        ],
        [
          34.975799806500014,
          -27.905493642927233,
          3.9447493118352863,
          -4.68589329119448
        ],
        [
          -80.92326219772319,
          -5.315266783328533,
          39.525101145985886,
          39.88944299698183
        ],
        [
          -12.096823250606635,
          45.176859214403486,
          -41.391550256364106,
          17.026793428017154
        ]
      ],
      "rows": 4,
      "cols": 4
    },
    "b1": {
      "data": [
        [
          3.8786686127650936
        ],
        [
          6.124601407404807
        ],
        [
          10.837494850183596
        ],
        [
          -4.443017358641148
        ]
      ],
      "rows": 4,
      "cols": 1
    },
    "W2": {
      "data": [
        [
          -1.8314339997719622,
          38.576589899623485,
          -16.152036660887752,
          -8.905121864884258
        ]
      ],
      "rows": 1,
      "cols": 4
    },
    "b2": {
      "data": [
        [
          -34.23705441129987
        ]
      ],
      "rows": 1,
      "cols": 1
    }
  },
  {
    "W1": {
      "data": [
        [
          -15.097339221898237,
          16.31117571603534,
          26.79276554513243,
          8.718836465332936
        ],
        [
          35.205079381553674,
          -27.36850291410637,
          3.2163554543448303,
          -5.031740921240127
        ],
        [
          -78.97574425099712,
          -8.201241229121113,
          37.39584155148918,
          39.60700559579578
        ],
        [
          -11.654922955457632,
          46.24892535063321,
          -44.34628482225907,
          17.583168442749262
        ]
      ],
      "rows": 4,
      "cols": 4
    },
    "b1": {
      "data": [
        [
          0.6114219210582911
        ],
        [
          6.41211268257447
        ],
        [
          11.148982392547612
        ],
        [
          -3.859980289625093
        ]
      ],
      "rows": 4,
      "cols": 1
    },
    "W2": {
      "data": [
        [
          -0.19426175344357866,
          36.18353894067704,
          -16.88317902143855,
          -8.675341928168216
        ]
      ],
      "rows": 1,
      "cols": 4
    },
    "b2": {
      "data": [
        [
          -33.95055440075993
        ]
      ],
      "rows": 1,
      "cols": 1
    }
  },
  {
    "W1": {
      "data": [
        [
          -14.612618014151952,
          16.78822737484987,
          25.269710510086046,
          9.388085693856404
        ],
        [
          34.04758292364021,
          -28.239969340815588,
          4.571238455806159,
          -7.069647292688008
        ],
        [
          -78.77280168419951,
          -5.805255979727035,
          37.7631654874747,
          39.63391417830603
        ],
        [
          -14.048987885500667,
          46.57788277050004,
          -39.8074173896159,
          16.83493630220617
        ]
      ],
      "rows": 4,
      "cols": 4
    },
    "b1": {
      "data": [
        [
          1.510468769721032
        ],
        [
          7.731821044083971
        ],
        [
          10.442432978525648
        ],
        [
          -4.41940059589083
        ]
      ],
      "rows": 4,
      "cols": 1
    },
    "W2": {
      "data": [
        [
          -0.011346494788039785,
          36.737041581367315,
          -17.820614470590456,
          -9.569808126213061
        ]
      ],
      "rows": 1,
      "cols": 4
    },
    "b2": {
      "data": [
        [
          -34.34288678662983
        ]
      ],
      "rows": 1,
      "cols": 1
    }
  },
  {
    "W1": {
      "data": [
        [
          -19.8735560045623,
          16.630589079833587,
          26.391381442724274,
          5.377140795167419
        ],
        [
          33.52878183749353,
          -27.15767914549174,
          9.811919014888677,
          -9.106864937143763
        ],
        [
          -79.67352164209994,
          -4.210138272895078,
          36.082641342723264,
          41.05719153597189
        ],
        [
          -14.659896740937137,
          47.79816452172086,
          -44.14796919709189,
          18.153819845701523
        ]
      ],
      "rows": 4,
      "cols": 4
    },
    "b1": {
      "data": [
        [
          0.12077777245918511
        ],
        [
          6.97038957724693
        ],
        [
          9.794524895067672
        ],
        [
          -3.5927447984558003
        ]
      ],
      "rows": 4,
      "cols": 1
    },
    "W2": {
      "data": [
        [
          -0.07099389924207597,
          34.304913440459764,
          -16.217549829615315,
          -9.8798536457466
        ]
      ],
      "rows": 1,
      "cols": 4
    },
    "b2": {
      "data": [
        [
          -34.527680498636535
        ]
      ],
      "rows": 1,
      "cols": 1
    }
  },
  {
    "W1": {
      "data": [
        [
          -16.535356992040043,
          17.47528260909546,
          26.738994179272712,
          8.112023777733176
        ],
        [
          35.22190935671914,
          -27.611320046969116,
          5.114791387340111,
          -6.4046073201922695
        ],
        [
          -80.83796375870287,
          -4.832545118830703,
          37.75021700957757,
          41.09645815658718
        ],
        [
          -11.148606225269901,
          46.0947703363271,
          -44.34663119292922,
          17.29441327514448
        ]
      ],
      "rows": 4,
      "cols": 4
    },
    "b1": {
      "data": [
        [
          1.864045012048848
        ],
        [
          6.260976742905793
        ],
        [
          7.8032830495279635
        ],
        [
          -4.18402001801248
        ]
      ],
      "rows": 4,
      "cols": 1
    },
    "W2": {
      "data": [
        [
          -1.0548636929638429,
          36.3981752479591,
          -17.05976550985398,
          -10.988563003407894
        ]
      ],
      "rows": 1,
      "cols": 4
    },
    "b2": {
      "data": [
        [
          -32.920658228838036
        ]
      ],
      "rows": 1,
      "cols": 1
    }
  },
  {
    "W1": {
      "data": [
        [
          -17.34994160593001,
          16.742494845486565,
          27.43723857312472,
          8.400967090124142
        ],
        [
          35.73622861534082,
          -28.433076284767285,
          3.8218953011807444,
          -5.169942553513687
        ],
        [
          -81.39348102564858,
          -3.519046735218634,
          38.16193039481295,
          41.000900013939045
        ],
        [
          -11.839223456119196,
          45.19644801326736,
          -44.394075028954106,
          18.075544904707964
        ]
      ],
      "rows": 4,
      "cols": 4
    },
    "b1": {
      "data": [
        [
          2.794263964251169
        ],
        [
          7.066913590334635
        ],
        [
          8.134099770078684
        ],
        [
          -4.660748936851231
        ]
      ],
      "rows": 4,
      "cols": 1
    },
    "W2": {
      "data": [
        [
          -1.4578791297820857,
          38.04829276666589,
          -17.561322224101925,
          -11.066819198289176
        ]
      ],
      "rows": 1,
      "cols": 4
    },
    "b2": {
      "data": [
        [
          -33.95546158292872
        ]
      ],
      "rows": 1,
      "cols": 1
    }
  },
  {
    "W1": {
      "data": [
        [
          -18.465309173015573,
          14.645739780053976,
          26.36612763288893,
          7.516063907489072
        ],
        [
          33.03809413383266,
          -26.641657277978048,
          9.328215499287987,
          -9.949520415103432
        ],
        [
          -79.00510345726988,
          -4.968419762456224,
          37.08729442751468,
          39.90275988618824
        ],
        [
          -12.178445631269993,
          48.475106458627714,
          -44.29226473095906,
          17.686370357983314
        ]
      ],
      "rows": 4,
      "cols": 4
    },
    "b1": {
      "data": [
        [
          0.013790948335838493
        ],
        [
          7.127190798845805
        ],
        [
          9.575635979104941
        ],
        [
          -2.6253359430066427
        ]
      ],
      "rows": 4,
      "cols": 1
    },
    "W2": {
      "data": [
        [
          0.1606335721933848,
          34.93599949833741,
          -17.17438367720089,
          -12.114121696323089
        ]
      ],
      "rows": 1,
      "cols": 4
    },
    "b2": {
      "data": [
        [
          -34.85837558034944
        ]
      ],
      "rows": 1,
      "cols": 1
    }
  },
  {
    "W1": {
      "data": [
        [
          -16.798483733587943,
          16.040642353427295,
          26.991274887400156,
          7.409888653176303
        ],
        [
          34.40776056664191,
          -27.480490409648166,
          1.4659100862812033,
          -5.734825295319514
        ],
        [
          -79.15070849176814,
          -6.902238141454739,
          37.44391212575117,
          40.959895671300714
        ],
        [
          -11.59720978592423,
          46.4179886806338,
          -42.95502481114851,
          17.983064222976907
        ]
      ],
      "rows": 4,
      "cols": 4
    },
    "b1": {
      "data": [
        [
          0.40321977155943256
        ],
        [
          5.989908416002734
        ],
        [
          10.635124545033971
        ],
        [
          -4.776995856468947
        ]
      ],
      "rows": 4,
      "cols": 1
    },
    "W2": {
      "data": [
        [
          -0.9731140888644685,
          35.6713052298817,
          -16.998019406423264,
          -9.763157188952839
        ]
      ],
      "rows": 1,
      "cols": 4
    },
    "b2": {
      "data": [
        [
          -34.2086855509081
        ]
      ],
      "rows": 1,
      "cols": 1
    }
  },
  {
    "W1": {
      "data": [
        [
          -16.132370405471953,
          16.093921135230786,
          26.743792236665843,
          9.081584811069124
        ],
        [
          34.520887911841456,
          -26.808132857348834,
          2.721257617848481,
          -5.261016970359577
        ],
        [
          -80.0597967114965,
          -7.4003405789782,
          36.55885757241931,
          40.512687966327576
        ],
        [
          -12.195670344197074,
          46.76607586354322,
          -43.69821065220916,
          17.53888720775128
        ]
      ],
      "rows": 4,
      "cols": 4
    },
    "b1": {
      "data": [
        [
          1.5703507727958548
        ],
        [
          5.2114850567556825
        ],
        [
          11.275687925851791
        ],
        [
          -4.4485148616194214
        ]
      ],
      "rows": 4,
      "cols": 1
    },
    "W2": {
      "data": [
        [
          -1.3625264221325015,
          35.90081904233171,
          -17.607753336476424,
          -8.64511328949532
        ]
      ],
      "rows": 1,
      "cols": 4
    },
    "b2": {
      "data": [
        [
          -35.45758073902231
        ]
      ],
      "rows": 1,
      "cols": 1
    }
  },
  {
    "W1": {
      "data": [
        [
          -18.540953279996412,
          15.98701448188613,
          26.103348433305516,
          8.505278555965132
        ],
        [
          33.61374510831639,
          -26.90019249954325,
          9.521088034602853,
          -10.455085847248137
        ],
        [
          -79.61884576183974,
          -5.520710865647719,
          36.3873183031051,
          40.15495764284508
        ],
        [
          -12.392777481099275,
          48.36945946578023,
          -42.86821994618162,
          17.869860273823335
        ]
      ],
      "rows": 4,
      "cols": 4
    },
    "b1": {
      "data": [
        [
          0.05984745858729987
        ],
        [
          6.915109677843323
        ],
        [
          10.193552389938233
        ],
        [
          -3.2661755706123654
        ]
      ],
      "rows": 4,
      "cols": 1
    },
    "W2": {
      "data": [
        [
          0.9154859704976583,
          35.06001248280903,
          -17.22155771301598,
          -11.106912160031598
        ]
      ],
      "rows": 1,
      "cols": 4
    },
    "b2": {
      "data": [
        [
          -34.94732153908249
        ]
      ],
      "rows": 1,
      "cols": 1
    }
  },
  {
    "W1": {
      "data": [
        [
          -15.850899723656308,
          15.613544864444329,
          26.19463632648708,
          8.747651545863414
        ],
        [
          34.456843948420996,
          -27.825605708253917,
          4.193530332436799,
          -5.896145407279425
        ],
        [
          -79.00711439508424,
          -7.131834234729185,
          37.57177704489979,
          40.22250895797883
        ],
        [
          -12.459101331989695,
          46.07228779652467,
          -44.25498150112763,
          17.30179519092402
        ]
      ],
      "rows": 4,
      "cols": 4
    },
    "b1": {
      "data": [
        [
          1.9465423151933978
        ],
        [
          6.280784634424807
        ],
        [
          10.998310444050338
        ],
        [
          -5.519305561017225
        ]
      ],
      "rows": 4,
      "cols": 1
    },
    "W2": {
      "data": [
        [
          -0.9777325984338138,
          37.75290223719516,
          -17.11312041342578,
          -8.895049155298775
        ]
      ],
      "rows": 1,
      "cols": 4
    },
    "b2": {
      "data": [
        [
          -34.22516153757557
        ]
      ],
      "rows": 1,
      "cols": 1
    }
  },
  {
    "W1": {
      "data": [
        [
          -16.705965472501017,
          18.05773938797456,
          27.241837285926465,
          8.433517338455514
        ],
        [
          35.885495927147105,
          -27.503267065377003,
          3.5975136315201435,
          -6.3375519195131655
        ],
        [
          -81.63018035070174,
          -3.495048919189574,
          38.40048304702238,
          40.13024366279324
        ],
        [
          -10.946308085649516,
          44.884834774416134,
          -43.270505411831905,
          17.987878920094545
        ]
      ],
      "rows": 4,
      "cols": 4
    },
    "b1": {
      "data": [
        [
          2.819108086551723
        ],
        [
          5.890377514039536
        ],
        [
          8.329420642782933
        ],
        [
          -4.856600388217695
        ]
      ],
      "rows": 4,
      "cols": 1
    },
    "W2": {
      "data": [
        [
          -1.1348491480649496,
          37.20183294182647,
          -17.305134228972257,
          -10.558159259614369
        ]
      ],
      "rows": 1,
      "cols": 4
    },
    "b2": {
      "data": [
        [
          -34.620448389975046
        ]
      ],
      "rows": 1,
      "cols": 1
    }
  },
  {
    "W1": {
      "data": [
        [
          -16.33091973172782,
          18.65133055774827,
          26.763972460588295,
          8.229854353818782
        ],
        [
          36.50512609784446,
          -27.70597755394469,
          4.5564703023931745,
          -4.897103893977125
        ],
        [
          -81.01976684386737,
          -4.958457113497885,
          37.94331751607663,
          41.42920074378009
        ],
        [
          -12.043256183723043,
          45.33133140512354,
          -44.628303600990094,
          17.82913796884692
        ]
      ],
      "rows": 4,
      "cols": 4
    },
    "b1": {
      "data": [
        [
          2.2276199381490747
        ],
        [
          7.0424890128276045
        ],
        [
          8.98408153392021
        ],
        [
          -4.80914365084307
        ]
      ],
      "rows": 4,
      "cols": 1
    },
    "W2": {
      "data": [
        [
          -1.381070184726183,
          36.25211289547752,
          -17.254471160461858,
          -10.30317309711729
        ]
      ],
      "rows": 1,
      "cols": 4
    },
    "b2": {
      "data": [
        [
          -35.581036285049414
        ]
      ],
      "rows": 1,
      "cols": 1
    }
  },
  {
    "W1": {
      "data": [
        [
          -16.77951872530472,
          17.095411229665807,
          25.30218849616619,
          10.0048966998592
        ],
        [
          35.32616280558314,
          -28.032692101888188,
          5.45451166857146,
          -6.092853809094246
        ],
        [
          -80.93422251204788,
          -5.770938054030532,
          38.5112789175488,
          39.87683127288892
        ],
        [
          -13.00344437491267,
          46.045032236733256,
          -42.17134021536651,
          17.31640017995716
        ]
      ],
      "rows": 4,
      "cols": 4
    },
    "b1": {
      "data": [
        [
          3.149336775235808
        ],
        [
          6.125883264920626
        ],
        [
          11.754652646077131
        ],
        [
          -5.823114048591211
        ]
      ],
      "rows": 4,
      "cols": 1
    },
    "W2": {
      "data": [
        [
          -0.47630687206321065,
          38.74829196741193,
          -15.000089564867315,
          -8.028940125543746
        ]
      ],
      "rows": 1,
      "cols": 4
    },
    "b2": {
      "data": [
        [
          -33.49551678921468
        ]
      ],
      "rows": 1,
      "cols": 1
    }
  },
  {
    "W1": {
      "data": [
        [
          -14.973220961615988,
          17.38563287661423,
          25.248613772463752,
          8.276992134170476
        ],
        [
          34.49310248474162,
          -28.81692879274719,
          5.230537239081144,
          -7.364795004651498
        ],
        [
          -78.46082179594902,
          -5.507628475028968,
          37.79338588223757,
          40.18384453497738
        ],
        [
          -14.047733567552697,
          45.03186328176078,
          -40.319722504762254,
          17.408728538461485
        ]
      ],
      "rows": 4,
      "cols": 4
    },
    "b1": {
      "data": [
        [
          2.053938987002355
        ],
        [
          6.009963295923644
        ],
        [
          10.02941704520912
        ],
        [
          -4.511503081012643
        ]
      ],
      "rows": 4,
      "cols": 1
    },
    "W2": {
      "data": [
        [
          0.09448494653727552,
          36.52637451912198,
          -16.902986071354334,
          -9.298952375195817
        ]
      ],
      "rows": 1,
      "cols": 4
    },
    "b2": {
      "data": [
        [
          -33.23899369987829
        ]
      ],
      "rows": 1,
      "cols": 1
    }
  },
  {
    "W1": {
      "data": [
        [
          -17.59024287411675,
          17.587938404660314,
          25.489286625110246,
          10.646461859580235
        ],
        [
          35.59699782342636,
          -27.869213340842652,
          5.703050076723311,
          -5.691238532192917
        ],
        [
          -81.3074514516145,
          -5.597749617105098,
          39.10021735544464,
          40.960216794924136
        ],
        [
          -12.41074024263303,
          45.91039344176695,
          -41.28141146081882,
          17.686037616055113
        ]
      ],
      "rows": 4,
      "cols": 4
    },
    "b1": {
      "data": [
        [
          3.688069338003875
        ],
        [
          5.3176665608952955
        ],
        [
          10.297911605725892
        ],
        [
          -6.0129788772157635
        ]
      ],
      "rows": 4,
      "cols": 1
    },
    "W2": {
      "data": [
        [
          -0.6591158078280552,
          39.200814612815,
          -15.745455569017237,
          -7.602203895411042
        ]
      ],
      "rows": 1,
      "cols": 4
    },
    "b2": {
      "data": [
        [
          -34.27088144191778
        ]
      ],
      "rows": 1,
      "cols": 1
    }
  },
  {
    "W1": {
      "data": [
        [
          -17.145198653616436,
          17.671846836127557,
          25.306040339458928,
          9.958994962823184
        ],
        [
          35.466037206345206,
          -28.05457669319944,
          5.750405006229867,
          -4.9034413343873515
        ],
        [
          -81.17569560958813,
          -5.720672062478392,
          38.57223012491277,
          40.112863156158674
        ],
        [
          -13.75852267104745,
          45.16701658084485,
          -42.42419436354779,
          17.407216750253458
        ]
      ],
      "rows": 4,
      "cols": 4
    },
    "b1": {
      "data": [
        [
          3.3456859571831283
        ],
        [
          6.1381287551419454
        ],
        [
          10.45644851756759
        ],
        [
          -4.792852303933352
        ]
      ],
      "rows": 4,
      "cols": 1
    },
    "W2": {
      "data": [
        [
          -0.995689116283951,
          38.86771169768054,
          -15.40335995474593,
          -7.674817544539077
        ]
      ],
      "rows": 1,
      "cols": 4
    },
    "b2": {
      "data": [
        [
          -34.81603990104407
        ]
      ],
      "rows": 1,
      "cols": 1
    }
  },
  {
    "W1": {
      "data": [
        [
          -17.34931414077777,
          15.055941603493885,
          26.817053771879067,
          8.48992242984048
        ],
        [
          33.62454861228419,
          -27.682259501101267,
          1.5605845524387965,
          -4.750584549650019
        ],
        [
          -79.45243821560435,
          -7.997605949957532,
          37.24180580719291,
          40.26537273826543
        ],
        [
          -12.055567801528987,
          46.26245014371709,
          -42.698026087363,
          18.02947165428541
        ]
      ],
      "rows": 4,
      "cols": 4
    },
    "b1": {
      "data": [
        [
          1.01318444396434
        ],
        [
          7.298331682330581
        ],
        [
          10.22774951500856
        ],
        [
          -4.750515952016159
        ]
      ],
      "rows": 4,
      "cols": 1
    },
    "W2": {
      "data": [
        [
          -1.7492399232337248,
          36.112919001985595,
          -16.83373557867841,
          -8.312000073242505
        ]
      ],
      "rows": 1,
      "cols": 4
    },
    "b2": {
      "data": [
        [
          -34.41509127010701
        ]
      ],
      "rows": 1,
      "cols": 1
    }
  },
  {
    "W1": {
      "data": [
        [
          -18.392475413957378,
          16.99110802444208,
          27.43388212527228,
          6.03315365010613
        ],
        [
          35.010295075574184,
          -27.20314530013765,
          9.700294896438992,
          -9.210139723214557
        ],
        [
          -81.37732518786036,
          -3.106781998232904,
          36.73053905381076,
          40.569344950291104
        ],
        [
          -14.379137865722473,
          47.57626406212248,
          -41.91142249796089,
          14.761658896687946
        ]
      ],
      "rows": 4,
      "cols": 4
    },
    "b1": {
      "data": [
        [
          0.9158188155501044
        ],
        [
          6.7965790202190295
        ],
        [
          10.372100434641395
        ],
        [
          -3.433186094148951
        ]
      ],
      "rows": 4,
      "cols": 1
    },
    "W2": {
      "data": [
        [
          -2.365462559864839,
          34.525011149252265,
          -17.015834047209673,
          -8.677259430777003
        ]
      ],
      "rows": 1,
      "cols": 4
    },
    "b2": {
      "data": [
        [
          -34.948793755995844
        ]
      ],
      "rows": 1,
      "cols": 1
    }
  },
  {
    "W1": {
      "data": [
        [
          -18.946268409082787,
          16.917981022955086,
          25.89585345281927,
          6.708094862429887
        ],
        [
          34.03003961364678,
          -26.295654872857927,
          10.697315182298818,
          -9.643504044061853
        ],
        [
          -79.03114704405408,
          -3.8754443871125686,
          36.50499384681666,
          39.979688826918085
        ],
        [
          -13.559762887096788,
          48.51084415358291,
          -42.205116663712765,
          18.88469769918437
        ]
      ],
      "rows": 4,
      "cols": 4
    },
    "b1": {
      "data": [
        [
          -0.23930164183496305
        ],
        [
          6.768593111437794
        ],
        [
          8.964666936940803
        ],
        [
          -3.6405823214066357
        ]
      ],
      "rows": 4,
      "cols": 1
    },
    "W2": {
      "data": [
        [
          0.40761501462124283,
          36.14508406874659,
          -17.09635280549817,
          -10.134872140971378
        ]
      ],
      "rows": 1,
      "cols": 4
    },
    "b2": {
      "data": [
        [
          -34.5512876707661
        ]
      ],
      "rows": 1,
      "cols": 1
    }
  },
  {
    "W1": {
      "data": [
        [
          -18.109714000780503,
          16.056682627861395,
          26.548602667626987,
          7.573172176643927
        ],
        [
          33.888501685128325,
          -26.28649909562408,
          9.663711549788708,
          -10.317048128216175
        ],
        [
          -78.74660317829051,
          -5.252779841103524,
          36.94995272768961,
          41.2806883425499
        ],
        [
          -11.982314190873712,
          47.700541779660725,
          -43.77002318118297,
          19.602966324983843
        ]
      ],
      "rows": 4,
      "cols": 4
    },
    "b1": {
      "data": [
        [
          0.10102381872299251
        ],
        [
          6.245433811917638
        ],
        [
          9.82602647382826
        ],
        [
          -2.7864283356009083
        ]
      ],
      "rows": 4,
      "cols": 1
    },
    "W2": {
      "data": [
        [
          0.8082348882555318,
          35.12975295770523,
          -16.98890567209362,
          -10.193943435704861
        ]
      ],
      "rows": 1,
      "cols": 4
    },
    "b2": {
      "data": [
        [
          -34.11950492056336
        ]
      ],
      "rows": 1,
      "cols": 1
    }
  },
  {
    "W1": {
      "data": [
        [
          -21.026361979178517,
          16.98694784263456,
          24.731494512534635,
          6.473518088994167
        ],
        [
          36.036363299225755,
          -28.94708225246862,
          9.507780683403523,
          -8.378908999779295
        ],
        [
          -78.47402948724026,
          -5.2505152516115094,
          39.39245685468873,
          41.3259096105138
        ],
        [
          -12.06489244722527,
          47.22574117104599,
          -40.38312328924557,
